<?xml version="1.0"?>
<opencv_storage>
<cascade>
  <stageType>BOOST</stageType>
  <featureType>HAAR</featureType>
  <height>48</height>
  <width>32</width>
  <stageParams>
    <boostType>GAB</boostType>
    <minHitRate>9.9500000476837158e-01</minHitRate>
    <maxFalseAlarm>5.0000000000000000e-01</maxFalseAlarm>
    <weightTrimRate>9.4999999999999996e-01</weightTrimRate>
    <maxDepth>1</maxDepth>
    <maxWeakCount>100</maxWeakCount></stageParams>
  <featureParams>
    <maxCatCount>0</maxCatCount>
    <featSize>1</featSize>
    <mode>BASIC</mode></featureParams>
  <stageNum>6</stageNum>
  <stages>
    <!-- stage 0 -->
    <_>
      <maxWeakCount>2</maxWeakCount>
      <stageThreshold>-8.3193764090538025e-02</stageThreshold>
      <weakClassifiers>
        <_>
          <internalNodes>
            0 -1 11 -1.9333731324877590e-04</internalNodes>
          <leafValues>
            9.5655035972595215e-01 -9.6169632673263550e-01</leafValues></_>
        <_>
          <internalNodes>
            0 -1 3 -1.7012346535921097e-02</internalNodes>
          <leafValues>
            8.7850254774093628e-01 -9.3075811862945557e-01</leafValues></_></weakClassifiers></_>
    <!-- stage 1 -->
    <_>
      <maxWeakCount>2</maxWeakCount>
      <stageThreshold>-1.5986038744449615e-01</stageThreshold>
      <weakClassifiers>
        <_>
          <internalNodes>
            0 -1 4 1.3585479557514191e-01</internalNodes>
          <leafValues>
            -9.2180448770523071e-01 8.5993689298629761e-01</leafValues></_>
        <_>
          <internalNodes>
            0 -1 7 1.9323630112921819e-05</internalNodes>
          <leafValues>
            -9.9006086587905884e-01 7.6194411516189575e-01</leafValues></_></weakClassifiers></_>
    <!-- stage 2 -->
    <_>
      <maxWeakCount>2</maxWeakCount>
      <stageThreshold>-9.3447908759117126e-02</stageThreshold>
      <weakClassifiers>
        <_>
          <internalNodes>
            0 -1 6 8.7534375488758087e-03</internalNodes>
          <leafValues>
            -9.2012286186218262e-01 8.4365230798721313e-01</leafValues></_>
        <_>
          <internalNodes>
            0 -1 5 1.5900364087428898e-04</internalNodes>
          <leafValues>
            -8.3820021152496338e-01 8.2667499780654907e-01</leafValues></_></weakClassifiers></_>
    <!-- stage 3 -->
    <_>
      <maxWeakCount>2</maxWeakCount>
      <stageThreshold>1.1926824226975441e-02</stageThreshold>
      <weakClassifiers>
        <_>
          <internalNodes>
            0 -1 8 4.0499173337593675e-05</internalNodes>
          <leafValues>
            -7.2958499193191528e-01 8.6161011457443237e-01</leafValues></_>
        <_>
          <internalNodes>
            0 -1 9 -1.0544501710683107e-03</internalNodes>
          <leafValues>
            7.8554815053939819e-01 -8.4968328475952148e-01</leafValues></_></weakClassifiers></_>
    <!-- stage 4 -->
    <_>
      <maxWeakCount>2</maxWeakCount>
      <stageThreshold>-1.4169824123382568e-01</stageThreshold>
      <weakClassifiers>
        <_>
          <internalNodes>
            0 -1 2 1.7219146684510633e-05</internalNodes>
          <leafValues>
            -8.5754191875457764e-01 8.8917863368988037e-01</leafValues></_>
        <_>
          <internalNodes>
            0 -1 0 1.9546263501979411e-05</internalNodes>
          <leafValues>
            -9.7866189479827881e-01 7.1584367752075195e-01</leafValues></_></weakClassifiers></_>
    <!-- stage 5 -->
    <_>
      <maxWeakCount>2</maxWeakCount>
      <stageThreshold>-1.1697802692651749e-02</stageThreshold>
      <weakClassifiers>
        <_>
          <internalNodes>
            0 -1 10 -7.5612333603203297e-05</internalNodes>
          <leafValues>
            8.8347053527832031e-01 -9.6125185489654541e-01</leafValues></_>
        <_>
          <internalNodes>
            0 -1 1 -4.0510960388928652e-04</internalNodes>
          <leafValues>
            9.4955408573150635e-01 -6.8063551187515259e-01</leafValues></_></weakClassifiers></_></stages>
  <features>
    <_>
      <rects>
        <_>
          1 2 9 2 -1.</_>
        <_>
          1 3 9 1 2.</_></rects>
      <tilted>0</tilted></_>
    <_>
      <rects>
        <_>
          1 22 2 3 -1.</_>
        <_>
          1 23 2 1 3.</_></rects>
      <tilted>0</tilted></_>
    <_>
      <rects>
        <_>
          2 8 2 2 -1.</_>
        <_>
          2 8 1 1 2.</_>
        <_>
          3 9 1 1 2.</_></rects>
      <tilted>0</tilted></_>
    <_>
      <rects>
        <_>
          2 8 12 12 -1.</_>
        <_>
          2 8 6 6 2.</_>
        <_>
          8 14 6 6 2.</_></rects>
      <tilted>0</tilted></_>
    <_>
      <rects>
        <_>
          4 0 23 21 -1.</_>
        <_>
          4 7 23 7 3.</_></rects>
      <tilted>0</tilted></_>
    <_>
      <rects>
        <_>
          6 6 1 2 -1.</_>
        <_>
          6 7 1 1 2.</_></rects>
      <tilted>0</tilted></_>
    <_>
      <rects>
        <_>
          7 17 7 8 -1.</_>
        <_>
          7 21 7 4 2.</_></rects>
      <tilted>0</tilted></_>
    <_>
      <rects>
        <_>
          8 2 2 2 -1.</_>
        <_>
          8 2 1 1 2.</_>
        <_>
          9 3 1 1 2.</_></rects>
      <tilted>0</tilted></_>
    <_>
      <rects>
        <_>
          21 46 2 2 -1.</_>
        <_>
          21 46 1 1 2.</_>
        <_>
          22 47 1 1 2.</_></rects>
      <tilted>0</tilted></_>
    <_>
      <rects>
        <_>
          28 23 4 1 -1.</_>
        <_>
          30 23 2 1 2.</_></rects>
      <tilted>0</tilted></_>
    <_>
      <rects>
        <_>
          29 9 2 2 -1.</_>
        <_>
          29 9 1 1 2.</_>
        <_>
          30 10 1 1 2.</_></rects>
      <tilted>0</tilted></_>
    <_>
      <rects>
        <_>
          29 12 2 1 -1.</_>
        <_>
          30 12 1 1 2.</_></rects>
      <tilted>0</tilted></_></features></cascade>
</opencv_storage>
